\BOOKMARK [1][-]{section.1}{I 理论储备}{}% 1
\BOOKMARK [2][-]{subsection.1.1}{I-A 梯度矢量}{section.1}% 2
\BOOKMARK [2][-]{subsection.1.2}{I-B 方向梯度直方图}{section.1}% 3
\BOOKMARK [2][-]{subsection.1.3}{I-C SVM分类器}{section.1}% 4
\BOOKMARK [1][-]{section.2}{II OpenCV实现}{}% 5
\BOOKMARK [2][-]{subsection.2.1}{II-A CPU HOG简单例程}{section.2}% 6
\BOOKMARK [2][-]{subsection.2.2}{II-B HOGDescriptor类接口}{section.2}% 7
\BOOKMARK [3][-]{subsubsection.2.2.1}{II-B1\040HOGDescriptor::HOGDescriptor}{subsection.2.2}% 8
\BOOKMARK [3][-]{subsubsection.2.2.2}{II-B2\040HOGDescriptor::getDescriptorSize}{subsection.2.2}% 9
\BOOKMARK [3][-]{subsubsection.2.2.3}{II-B3\040HOGDescriptor::setSVMDetector}{subsection.2.2}% 10
\BOOKMARK [3][-]{subsubsection.2.2.4}{II-B4\040HOGDescriptor::getDefaultPeopleDetector}{subsection.2.2}% 11
\BOOKMARK [3][-]{subsubsection.2.2.5}{II-B5\040HOGDescriptor::detect}{subsection.2.2}% 12
\BOOKMARK [3][-]{subsubsection.2.2.6}{II-B6\040HOGDescriptor::detectMultiScale}{subsection.2.2}% 13
\BOOKMARK [3][-]{subsubsection.2.2.7}{II-B7\040HOGDescriptor::compute}{subsection.2.2}% 14
\BOOKMARK [2][-]{subsection.2.3}{II-C HOG/linSVM程序实现}{section.2}% 15
\BOOKMARK [3][-]{subsubsection.2.3.1}{II-C1 训练HOG描述符}{subsection.2.3}% 16
\BOOKMARK [1][-]{section*.1}{References}{}% 17
